<?xml version="1.0"?>
<opencv_storage>
<cascade>
  <stageType>BOOST</stageType>
  <featureType>HAAR</featureType>
  <height>28</height>
  <width>28</width>
  <stageParams>
    <boostType>GAB</boostType>
    <minHitRate>9.9500000476837158e-01</minHitRate>
    <maxFalseAlarm>4.0000000596046448e-01</maxFalseAlarm>
    <weightTrimRate>9.4999999999999996e-01</weightTrimRate>
    <maxDepth>1</maxDepth>
    <maxWeakCount>100</maxWeakCount></stageParams>
  <featureParams>
    <maxCatCount>0</maxCatCount>
    <featSize>1</featSize>
    <mode>CORE</mode></featureParams>
  <stageNum>12</stageNum>
  <stages>
    <!-- stage 0 -->
    <_>
      <maxWeakCount>3</maxWeakCount>
      <stageThreshold>-9.7860193252563477e-01</stageThreshold>
      <weakClassifiers>
        <_>
          <internalNodes>
            0 -1 15 2.6684564352035522e-01</internalNodes>
          <leafValues>
            -9.6438354253768921e-01 9.1428571939468384e-01</leafValues></_>
        <_>
          <internalNodes>
            0 -1 1 3.2929979264736176e-02</internalNodes>
          <leafValues>
            -7.7720320224761963e-01 8.5008841753005981e-01</leafValues></_>
        <_>
          <internalNodes>
            0 -1 51 -2.9823493212461472e-02</internalNodes>
          <leafValues>
            7.6298481225967407e-01 -7.8422498703002930e-01</leafValues></_></weakClassifiers></_>
    <!-- stage 1 -->
    <_>
      <maxWeakCount>2</maxWeakCount>
      <stageThreshold>-3.2390993833541870e-01</stageThreshold>
      <weakClassifiers>
        <_>
          <internalNodes>
            0 -1 12 3.3058375120162964e-01</internalNodes>
          <leafValues>
            -9.4526624679565430e-01 7.7548545598983765e-01</leafValues></_>
        <_>
          <internalNodes>
            0 -1 23 8.1331748515367508e-03</internalNodes>
          <leafValues>
            -9.6969050168991089e-01 6.2135636806488037e-01</leafValues></_></weakClassifiers></_>
    <!-- stage 2 -->
    <_>
      <maxWeakCount>4</maxWeakCount>
      <stageThreshold>-1.5542991161346436e+00</stageThreshold>
      <weakClassifiers>
        <_>
          <internalNodes>
            0 -1 45 1.7407063394784927e-02</internalNodes>
          <leafValues>
            -7.3756217956542969e-01 8.5201150178909302e-01</leafValues></_>
        <_>
          <internalNodes>
            0 -1 6 1.0040843859314919e-02</internalNodes>
          <leafValues>
            -7.6016849279403687e-01 7.4489766359329224e-01</leafValues></_>
        <_>
          <internalNodes>
            0 -1 20 -5.1518451422452927e-02</internalNodes>
          <leafValues>
            6.7014104127883911e-01 -8.7716096639633179e-01</leafValues></_>
        <_>
          <internalNodes>
            0 -1 28 5.6992578320205212e-03</internalNodes>
          <leafValues>
            -7.2670942544937134e-01 5.0539219379425049e-01</leafValues></_></weakClassifiers></_>
    <!-- stage 3 -->
    <_>
      <maxWeakCount>4</maxWeakCount>
      <stageThreshold>-2.8140455484390259e-01</stageThreshold>
      <weakClassifiers>
        <_>
          <internalNodes>
            0 -1 7 1.6152876615524292e-01</internalNodes>
          <leafValues>
            -6.8032789230346680e-01 8.9938080310821533e-01</leafValues></_>
        <_>
          <internalNodes>
            0 -1 49 1.0508816689252853e-01</internalNodes>
          <leafValues>
            -5.7830321788787842e-01 8.3551776409149170e-01</leafValues></_>
        <_>
          <internalNodes>
            0 -1 16 4.5481964945793152e-02</internalNodes>
          <leafValues>
            -8.8458824157714844e-01 5.7653790712356567e-01</leafValues></_>
        <_>
          <internalNodes>
            0 -1 32 8.7498407810926437e-03</internalNodes>
          <leafValues>
            -8.8871699571609497e-01 4.4799381494522095e-01</leafValues></_></weakClassifiers></_>
    <!-- stage 4 -->
    <_>
      <maxWeakCount>5</maxWeakCount>
      <stageThreshold>-1.0902080535888672e+00</stageThreshold>
      <weakClassifiers>
        <_>
          <internalNodes>
            0 -1 4 9.2854257673025131e-03</internalNodes>
          <leafValues>
            -7.7678573131561279e-01 6.3043481111526489e-01</leafValues></_>
        <_>
          <internalNodes>
            0 -1 53 2.5453612208366394e-02</internalNodes>
          <leafValues>
            -7.6866161823272705e-01 6.0309642553329468e-01</leafValues></_>
        <_>
          <internalNodes>
            0 -1 33 -7.3234979063272476e-03</internalNodes>
          <leafValues>
            5.0618255138397217e-01 -7.1604973077774048e-01</leafValues></_>
        <_>
          <internalNodes>
            0 -1 13 1.4064928889274597e-01</internalNodes>
          <leafValues>
            -8.1142264604568481e-01 3.9560851454734802e-01</leafValues></_>
        <_>
          <internalNodes>
            0 -1 46 6.2816813588142395e-03</internalNodes>
          <leafValues>
            -5.1041752099990845e-01 7.7568048238754272e-01</leafValues></_></weakClassifiers></_>
    <!-- stage 5 -->
    <_>
      <maxWeakCount>5</maxWeakCount>
      <stageThreshold>-1.0502574443817139e+00</stageThreshold>
      <weakClassifiers>
        <_>
          <internalNodes>
            0 -1 8 3.9572812616825104e-02</internalNodes>
          <leafValues>
            -5.8805972337722778e-01 7.4339622259140015e-01</leafValues></_>
        <_>
          <internalNodes>
            0 -1 21 -6.4171686768531799e-02</internalNodes>
          <leafValues>
            5.7278060913085938e-01 -6.6709184646606445e-01</leafValues></_>
        <_>
          <internalNodes>
            0 -1 47 1.3092488050460815e-01</internalNodes>
          <leafValues>
            -6.0932320356369019e-01 6.6236567497253418e-01</leafValues></_>
        <_>
          <internalNodes>
            0 -1 10 2.0170354843139648e-01</internalNodes>
          <leafValues>
            -9.2487585544586182e-01 4.1244754195213318e-01</leafValues></_>
        <_>
          <internalNodes>
            0 -1 22 3.9612008258700371e-03</internalNodes>
          <leafValues>
            -8.3810269832611084e-01 4.3015441298484802e-01</leafValues></_></weakClassifiers></_>
    <!-- stage 6 -->
    <_>
      <maxWeakCount>5</maxWeakCount>
      <stageThreshold>-1.1528238058090210e+00</stageThreshold>
      <weakClassifiers>
        <_>
          <internalNodes>
            0 -1 38 -1.9474108703434467e-03</internalNodes>
          <leafValues>
            5.7679557800292969e-01 -8.7731093168258667e-01</leafValues></_>
        <_>
          <internalNodes>
            0 -1 48 3.9751503616571426e-02</internalNodes>
          <leafValues>
            -5.9588909149169922e-01 7.8588533401489258e-01</leafValues></_>
        <_>
          <internalNodes>
            0 -1 27 1.7333176219835877e-03</internalNodes>
          <leafValues>
            -7.5600194931030273e-01 5.4525274038314819e-01</leafValues></_>
        <_>
          <internalNodes>
            0 -1 36 -1.1739564128220081e-02</internalNodes>
          <leafValues>
            5.3220915794372559e-01 -6.9274801015853882e-01</leafValues></_>
        <_>
          <internalNodes>
            0 -1 18 -9.4341322779655457e-02</internalNodes>
          <leafValues>
            4.6787151694297791e-01 -7.8312677145004272e-01</leafValues></_></weakClassifiers></_>
    <!-- stage 7 -->
    <_>
      <maxWeakCount>7</maxWeakCount>
      <stageThreshold>-1.1725946664810181e+00</stageThreshold>
      <weakClassifiers>
        <_>
          <internalNodes>
            0 -1 11 1.3024342060089111e-01</internalNodes>
          <leafValues>
            -5.6978082656860352e-01 7.8041076660156250e-01</leafValues></_>
        <_>
          <internalNodes>
            0 -1 43 8.9044645428657532e-03</internalNodes>
          <leafValues>
            -7.2054058313369751e-01 5.0986218452453613e-01</leafValues></_>
        <_>
          <internalNodes>
            0 -1 42 -2.1347398869693279e-03</internalNodes>
          <leafValues>
            4.9674481153488159e-01 -6.5323054790496826e-01</leafValues></_>
        <_>
          <internalNodes>
            0 -1 0 5.6022308766841888e-02</internalNodes>
          <leafValues>
            -5.6061786413192749e-01 5.7112777233123779e-01</leafValues></_>
        <_>
          <internalNodes>
            0 -1 19 -7.5460702180862427e-02</internalNodes>
          <leafValues>
            4.1345599293708801e-01 -7.2152549028396606e-01</leafValues></_>
        <_>
          <internalNodes>
            0 -1 50 -2.8614448383450508e-02</internalNodes>
          <leafValues>
            5.0342863798141479e-01 -5.7699185609817505e-01</leafValues></_>
        <_>
          <internalNodes>
            0 -1 31 4.0935887955129147e-04</internalNodes>
          <leafValues>
            -7.8401172161102295e-01 3.6336535215377808e-01</leafValues></_></weakClassifiers></_>
    <!-- stage 8 -->
    <_>
      <maxWeakCount>8</maxWeakCount>
      <stageThreshold>-9.8717945814132690e-01</stageThreshold>
      <weakClassifiers>
        <_>
          <internalNodes>
            0 -1 52 1.1520372331142426e-01</internalNodes>
          <leafValues>
            -5.4478526115417480e-01 6.4817517995834351e-01</leafValues></_>
        <_>
          <internalNodes>
            0 -1 26 3.4111379645764828e-03</internalNodes>
          <leafValues>
            -7.7857661247253418e-01 4.4426766037940979e-01</leafValues></_>
        <_>
          <internalNodes>
            0 -1 14 1.4754557609558105e-01</internalNodes>
          <leafValues>
            -5.4190182685852051e-01 5.9176200628280640e-01</leafValues></_>
        <_>
          <internalNodes>
            0 -1 37 8.8032677769660950e-02</internalNodes>
          <leafValues>
            -8.2961452007293701e-01 4.2306870222091675e-01</leafValues></_>
        <_>
          <internalNodes>
            0 -1 29 -1.0789444670081139e-02</internalNodes>
          <leafValues>
            -8.8428872823715210e-01 2.5704610347747803e-01</leafValues></_>
        <_>
          <internalNodes>
            0 -1 35 9.8329968750476837e-04</internalNodes>
          <leafValues>
            -9.1650688648223877e-01 2.6077970862388611e-01</leafValues></_>
        <_>
          <internalNodes>
            0 -1 34 -2.7537938207387924e-02</internalNodes>
          <leafValues>
            7.6766663789749146e-01 -3.8115242123603821e-01</leafValues></_>
        <_>
          <internalNodes>
            0 -1 9 1.8118854612112045e-02</internalNodes>
          <leafValues>
            -7.9204952716827393e-01 3.4818112850189209e-01</leafValues></_></weakClassifiers></_>
    <!-- stage 9 -->
    <_>
      <maxWeakCount>4</maxWeakCount>
      <stageThreshold>-6.8445098400115967e-01</stageThreshold>
      <weakClassifiers>
        <_>
          <internalNodes>
            0 -1 3 2.4200659245252609e-02</internalNodes>
          <leafValues>
            -7.2848147153854370e-01 6.6263526678085327e-01</leafValues></_>
        <_>
          <internalNodes>
            0 -1 41 -1.4077919768169522e-03</internalNodes>
          <leafValues>
            4.9223342537879944e-01 -7.7290821075439453e-01</leafValues></_>
        <_>
          <internalNodes>
            0 -1 24 1.4678392559289932e-02</internalNodes>
          <leafValues>
            3.8611516356468201e-01 -8.6039870977401733e-01</leafValues></_>
        <_>
          <internalNodes>
            0 -1 54 -4.7112058382481337e-05</internalNodes>
          <leafValues>
            4.3082350492477417e-01 -7.5620281696319580e-01</leafValues></_></weakClassifiers></_>
    <!-- stage 10 -->
    <_>
      <maxWeakCount>5</maxWeakCount>
      <stageThreshold>-8.2335299253463745e-01</stageThreshold>
      <weakClassifiers>
        <_>
          <internalNodes>
            0 -1 44 1.9289191812276840e-02</internalNodes>
          <leafValues>
            -7.1691435575485229e-01 6.3831126689910889e-01</leafValues></_>
        <_>
          <internalNodes>
            0 -1 25 3.3587400685064495e-04</internalNodes>
          <leafValues>
            -5.9863507747650146e-01 7.9805475473403931e-01</leafValues></_>
        <_>
          <internalNodes>
            0 -1 2 9.2651247978210449e-03</internalNodes>
          <leafValues>
            6.3630354404449463e-01 -6.6281181573867798e-01</leafValues></_>
        <_>
          <internalNodes>
            0 -1 30 -2.6566416490823030e-03</internalNodes>
          <leafValues>
            4.9210315942764282e-01 -9.4290190935134888e-01</leafValues></_>
        <_>
          <internalNodes>
            0 -1 17 -2.0756116136908531e-02</internalNodes>
          <leafValues>
            7.3909449577331543e-01 -5.5643081665039062e-01</leafValues></_></weakClassifiers></_>
    <!-- stage 11 -->
    <_>
      <maxWeakCount>3</maxWeakCount>
      <stageThreshold>-5.8219152688980103e-01</stageThreshold>
      <weakClassifiers>
        <_>
          <internalNodes>
            0 -1 40 -1.5006728470325470e-02</internalNodes>
          <leafValues>
            1. -7.1722954511642456e-01</leafValues></_>
        <_>
          <internalNodes>
            0 -1 5 4.7186338342726231e-03</internalNodes>
          <leafValues>
            -8.0712980031967163e-01 7.9201865196228027e-01</leafValues></_>
        <_>
          <internalNodes>
            0 -1 39 -7.7680484391748905e-03</internalNodes>
          <leafValues>
            1. -6.5698063373565674e-01</leafValues></_></weakClassifiers></_></stages>
  <features>
    <_>
      <rects>
        <_>
          0 0 8 18 -1.</_>
        <_>
          0 0 4 9 2.</_>
        <_>
          4 9 4 9 2.</_></rects>
      <tilted>0</tilted></_>
    <_>
      <rects>
        <_>
          0 2 6 16 -1.</_>
        <_>
          0 2 3 8 2.</_>
        <_>
          3 10 3 8 2.</_></rects>
      <tilted>0</tilted></_>
    <_>
      <rects>
        <_>
          0 8 3 18 -1.</_>
        <_>
          1 14 1 6 9.</_></rects>
      <tilted>0</tilted></_>
    <_>
      <rects>
        <_>
          0 11 6 5 -1.</_>
        <_>
          3 11 3 5 2.</_></rects>
      <tilted>0</tilted></_>
    <_>
      <rects>
        <_>
          0 14 6 2 -1.</_>
        <_>
          3 14 3 2 2.</_></rects>
      <tilted>0</tilted></_>
    <_>
      <rects>
        <_>
          1 10 15 6 -1.</_>
        <_>
          1 12 15 2 3.</_></rects>
      <tilted>0</tilted></_>
    <_>
      <rects>
        <_>
          1 12 8 3 -1.</_>
        <_>
          3 12 4 3 2.</_></rects>
      <tilted>0</tilted></_>
    <_>
      <rects>
        <_>
          2 7 6 15 -1.</_>
        <_>
          4 12 2 5 9.</_></rects>
      <tilted>0</tilted></_>
    <_>
      <rects>
        <_>
          2 8 6 11 -1.</_>
        <_>
          4 8 2 11 3.</_></rects>
      <tilted>0</tilted></_>
    <_>
      <rects>
        <_>
          2 12 24 6 -1.</_>
        <_>
          2 14 24 2 3.</_></rects>
      <tilted>0</tilted></_>
    <_>
      <rects>
        <_>
          3 3 19 14 -1.</_>
        <_>
          3 10 19 7 2.</_></rects>
      <tilted>0</tilted></_>
    <_>
      <rects>
        <_>
          3 4 3 21 -1.</_>
        <_>
          4 11 1 7 9.</_></rects>
      <tilted>0</tilted></_>
    <_>
      <rects>
        <_>
          3 6 21 18 -1.</_>
        <_>
          3 12 21 6 3.</_></rects>
      <tilted>0</tilted></_>
    <_>
      <rects>
        <_>
          3 9 22 12 -1.</_>
        <_>
          3 13 22 4 3.</_></rects>
      <tilted>0</tilted></_>
    <_>
      <rects>
        <_>
          4 1 3 27 -1.</_>
        <_>
          5 10 1 9 9.</_></rects>
      <tilted>0</tilted></_>
    <_>
      <rects>
        <_>
          4 5 20 20 -1.</_>
        <_>
          4 10 20 10 2.</_></rects>
      <tilted>0</tilted></_>
    <_>
      <rects>
        <_>
          4 6 20 6 -1.</_>
        <_>
          4 9 20 3 2.</_></rects>
      <tilted>0</tilted></_>
    <_>
      <rects>
        <_>
          4 7 8 10 -1.</_>
        <_>
          4 7 4 5 2.</_>
        <_>
          8 12 4 5 2.</_></rects>
      <tilted>0</tilted></_>
    <_>
      <rects>
        <_>
          4 16 19 8 -1.</_>
        <_>
          4 20 19 4 2.</_></rects>
      <tilted>0</tilted></_>
    <_>
      <rects>
        <_>
          4 16 21 12 -1.</_>
        <_>
          4 19 21 6 2.</_></rects>
      <tilted>0</tilted></_>
    <_>
      <rects>
        <_>
          4 17 21 6 -1.</_>
        <_>
          4 20 21 3 2.</_></rects>
      <tilted>0</tilted></_>
    <_>
      <rects>
        <_>
          4 18 20 9 -1.</_>
        <_>
          4 21 20 3 3.</_></rects>
      <tilted>0</tilted></_>
    <_>
      <rects>
        <_>
          7 5 6 5 -1.</_>
        <_>
          10 5 3 5 2.</_></rects>
      <tilted>0</tilted></_>
    <_>
      <rects>
        <_>
          8 6 12 5 -1.</_>
        <_>
          11 6 6 5 2.</_></rects>
      <tilted>0</tilted></_>
    <_>
      <rects>
        <_>
          8 12 12 6 -1.</_>
        <_>
          8 14 12 2 3.</_></rects>
      <tilted>0</tilted></_>
    <_>
      <rects>
        <_>
          8 17 4 5 -1.</_>
        <_>
          9 17 2 5 2.</_></rects>
      <tilted>0</tilted></_>
    <_>
      <rects>
        <_>
          8 18 9 5 -1.</_>
        <_>
          11 18 3 5 3.</_></rects>
      <tilted>0</tilted></_>
    <_>
      <rects>
        <_>
          8 19 4 4 -1.</_>
        <_>
          10 19 2 4 2.</_></rects>
      <tilted>0</tilted></_>
    <_>
      <rects>
        <_>
          8 20 12 3 -1.</_>
        <_>
          12 20 4 3 3.</_></rects>
      <tilted>0</tilted></_>
    <_>
      <rects>
        <_>
          9 8 10 16 -1.</_>
        <_>
          9 8 5 8 2.</_>
        <_>
          14 16 5 8 2.</_></rects>
      <tilted>0</tilted></_>
    <_>
      <rects>
        <_>
          9 10 2 14 -1.</_>
        <_>
          9 17 2 7 2.</_></rects>
      <tilted>0</tilted></_>
    <_>
      <rects>
        <_>
          9 13 6 12 -1.</_>
        <_>
          9 17 6 4 3.</_></rects>
      <tilted>0</tilted></_>
    <_>
      <rects>
        <_>
          10 7 8 16 -1.</_>
        <_>
          12 7 4 16 2.</_></rects>
      <tilted>0</tilted></_>
    <_>
      <rects>
        <_>
          10 20 7 4 -1.</_>
        <_>
          10 22 7 2 2.</_></rects>
      <tilted>0</tilted></_>
    <_>
      <rects>
        <_>
          10 21 10 6 -1.</_>
        <_>
          10 23 10 2 3.</_></rects>
      <tilted>0</tilted></_>
    <_>
      <rects>
        <_>
          12 5 8 6 -1.</_>
        <_>
          14 5 4 6 2.</_></rects>
      <tilted>0</tilted></_>
    <_>
      <rects>
        <_>
          14 13 10 10 -1.</_>
        <_>
          14 13 5 5 2.</_>
        <_>
          19 18 5 5 2.</_></rects>
      <tilted>0</tilted></_>
    <_>
      <rects>
        <_>
          16 4 7 20 -1.</_>
        <_>
          16 9 7 10 2.</_></rects>
      <tilted>0</tilted></_>
    <_>
      <rects>
        <_>
          16 6 4 4 -1.</_>
        <_>
          18 6 2 4 2.</_></rects>
      <tilted>0</tilted></_>
    <_>
      <rects>
        <_>
          16 8 8 8 -1.</_>
        <_>
          18 8 4 8 2.</_></rects>
      <tilted>0</tilted></_>
    <_>
      <rects>
        <_>
          16 18 9 6 -1.</_>
        <_>
          19 20 3 2 9.</_></rects>
      <tilted>0</tilted></_>
    <_>
      <rects>
        <_>
          16 19 4 4 -1.</_>
        <_>
          18 19 2 4 2.</_></rects>
      <tilted>0</tilted></_>
    <_>
      <rects>
        <_>
          16 19 4 5 -1.</_>
        <_>
          18 19 2 5 2.</_></rects>
      <tilted>0</tilted></_>
    <_>
      <rects>
        <_>
          17 7 6 10 -1.</_>
        <_>
          17 7 3 5 2.</_>
        <_>
          20 12 3 5 2.</_></rects>
      <tilted>0</tilted></_>
    <_>
      <rects>
        <_>
          19 1 8 16 -1.</_>
        <_>
          21 1 4 16 2.</_></rects>
      <tilted>0</tilted></_>
    <_>
      <rects>
        <_>
          19 12 8 4 -1.</_>
        <_>
          21 12 4 4 2.</_></rects>
      <tilted>0</tilted></_>
    <_>
      <rects>
        <_>
          20 8 3 13 -1.</_>
        <_>
          21 8 1 13 3.</_></rects>
      <tilted>0</tilted></_>
    <_>
      <rects>
        <_>
          20 9 6 12 -1.</_>
        <_>
          22 13 2 4 9.</_></rects>
      <tilted>0</tilted></_>
    <_>
      <rects>
        <_>
          20 10 6 9 -1.</_>
        <_>
          22 10 2 9 3.</_></rects>
      <tilted>0</tilted></_>
    <_>
      <rects>
        <_>
          21 6 3 18 -1.</_>
        <_>
          22 12 1 6 9.</_></rects>
      <tilted>0</tilted></_>
    <_>
      <rects>
        <_>
          22 0 4 20 -1.</_>
        <_>
          22 0 2 10 2.</_>
        <_>
          24 10 2 10 2.</_></rects>
      <tilted>0</tilted></_>
    <_>
      <rects>
        <_>
          22 1 6 20 -1.</_>
        <_>
          22 1 3 10 2.</_>
        <_>
          25 11 3 10 2.</_></rects>
      <tilted>0</tilted></_>
    <_>
      <rects>
        <_>
          22 6 3 18 -1.</_>
        <_>
          23 12 1 6 9.</_></rects>
      <tilted>0</tilted></_>
    <_>
      <rects>
        <_>
          22 13 6 12 -1.</_>
        <_>
          22 13 3 6 2.</_>
        <_>
          25 19 3 6 2.</_></rects>
      <tilted>0</tilted></_>
    <_>
      <rects>
        <_>
          24 0 2 18 -1.</_>
        <_>
          24 6 2 6 3.</_></rects>
      <tilted>0</tilted></_></features></cascade>
</opencv_storage>
